{"model": {"W1": [[0.20877089709683008, 0.24981576974115619, 0.5660571348611294, 0.8102764386909787], [0.1956518675877597, 0.3209822169558131, 0.6417852595043313, 0.24512691535036768], [0.027895882429763163, 0.4237663831250499, 0.49134192493625367, -0.07071297405243253], [0.14499676199516068, 0.5265957216830669, 0.8975396753053269, 0.2267995529277716], [0.15020614181043623, 0.4366002000168857, -0.055709292427648334, 0.4768680139452432], [0.8224870409359745, -0.032298495015026275, 0.5428034106569821, 0.28401445598998526], [0.717741147338848, 0.2033603751624901, 0.4088948361151028, 0.6387022398019339], [0.37080843334706287, -1.0104134930890545, 0.8941873150171384, 1.8845109858915046], [0.638207400781718, -0.2534832490110263, 1.0235434964495542, 1.1308204405694615], [-0.014885347508715719, -0.2087005833851117, 0.7785238560307477, 1.3091966238244535], [-0.020621209210851234, 0.6299073935447451, 0.7897889845053689, -0.08927167781457525], [0.8904231995809634, 0.4825577404362048, 0.1340405010524384, -0.37166178493157553]], "W2": [[-0.7815750729600502, 0.12422157665236182, 0.32309182306759826, -0.10598608704282475, 0.19551768549229498, -0.23330607181725752, -0.5123396449139244, 3.709938222782464, -1.2081717403731218, -1.51249405290702, 0.4488714699465528, 1.1981489781546377]], "b1": [[0.27759652130556545], [-0.27502062098644425], [-0.24686391785209316], [-0.03302154330703811], [-0.3189937484436381], [0.08540884984138407], [0.22521553227417168], [2.2278456344934585], [0.336894318081899], [0.4763444475865985], [-0.3688856724060218], [-0.6876006829337862]], "b2": [[-0.22155410645468293]]}, "meta": {"seeded": [true, 345], "architecture": {"1": 12}, "results": {"accuracy": 0.9465776293823038}, "training": {"backprop": "GD", "learning_rate": 0.01, "iterations": 5000, "train size": 599, "AF": ["RELU", "sigmoid"]}}}